{"format":"frozen_encoder_linear_multi_head_v1","base_model":"distilbert/distilbert-base-multilingual-cased","base_revision":"45c032ab32cc946ad88a166f7cb282f58c753c2e","selected_on":"dev_only","configuration":{"mrr":0.5718518518518518,"ndcg_at_10":0.6785807276678347,"recall_at_10":1.0,"objective":"combined","negative_ratio":8,"seed":1932,"training_seconds":37.83445010000105,"train_pair_count":2901},"head":{"relevance_weight":[-0.050767991691827774,0.016960367560386658,-0.04599085822701454,-0.047102220356464386,0.0028948199469596148,-0.12273900210857391,-0.05254092440009117,0.01203774195164442,-0.03026408888399601,-0.035231515765190125,-0.05522238835692406,0.006619500927627087,0.1045704185962677,0.01262471079826355,0.059543874114751816,-0.033020831644535065,0.025207024067640305,-0.08744370937347412,0.07693697512149811,-0.02114894427359104,-0.12171682715415955,-0.11646926403045654,0.08973025530576706,-0.02182818204164505,0.024062402546405792,0.020900320261716843,0.020524604246020317,-0.00979266781359911,-0.03898235782980919,0.05531603842973709,0.06291766464710236,0.006353051867336035,0.04756707325577736,-0.09284030646085739,-0.03127095103263855,0.010055209510028362,0.058317553251981735,-0.17901809513568878,0.0879942923784256,0.06790108233690262,0.03305372595787048,0.07688114047050476,-0.10477500408887863,0.007772660348564386,0.05725141987204552,-0.10387005656957626,-0.006776353809982538,0.16379444301128387,0.09933177381753922,-0.2098858654499054,0.08849313110113144,0.059898316860198975,-0.03447025641798973,-0.057297393679618835,0.02583697810769081,-0.051843829452991486,-0.30681779980659485,-0.019634993746876717,-0.039337169378995895,0.0015764649724587798,0.07702913135290146,0.1858975738286972,-0.005400813650339842,0.07453017681837082,-0.047169771045446396,-0.18553833663463593,0.06567352265119553,-0.08653508871793747,0.02537088468670845,0.0731140673160553,-0.059144001454114914,0.14933432638645172,-0.13176554441452026,-0.11190192401409149,0.07412248849868774,-0.0010559649672359228,-0.032572463154792786,-0.07335225492715836,0.02440536394715309,-0.006883235648274422,-0.027767399325966835,-0.07473157346248627,0.10221752524375916,-0.03664533793926239,-0.0027613062411546707,0.1528378576040268,-0.09281711280345917,0.0411941297352314,-0.0372341014444828,0.03430939465761185,0.12134400010108948,-0.07209445536136627,-0.03373270481824875,0.03574654087424278,0.11747109889984131,-0.00698986416682601,-0.010314438492059708,0.02225579507648945,-0.018097367137670517,-0.18432609736919403,-0.058466389775276184,-0.0009823732543736696,-0.06547205150127411,0.09857580810785294,-0.06086805462837219,0.04232872277498245,-0.020759934559464455,0.023870799690485,0.12271086871623993,0.004579773172736168,-0.040995847433805466,0.10558366030454636,0.07468000799417496,-0.003925342112779617,-0.046909961849451065,-0.13677076995372772,0.012440181337296963,-0.09589529782533646,-0.11996147036552429,0.037187326699495316,-0.05924685299396515,-0.03297819569706917,0.13107287883758545,0.11085455119609833,0.11021842807531357,0.11208721995353699,0.009758456610143185,0.049304477870464325,-0.021019143983721733,0.010913871228694916,0.06881425529718399,-0.22037096321582794,0.08988592773675919,-0.09177498519420624,-0.062198128551244736,0.02346682921051979,-0.000606728601269424,-0.08044146746397018,0.07160985469818115,-0.04851405695080757,0.015335485339164734,0.027738947421312332,-0.06256131082773209,-0.17162741720676422,-0.010136152617633343,0.16850215196609497,-0.021797994151711464,0.026304304599761963,0.03219463676214218,-0.15287014842033386,-0.09337018430233002,-0.04681715741753578,0.1349835991859436,0.021884223446249962,0.017518825829029083,-0.038330402225255966,0.024998672306537628,-0.04178750142455101,0.05322417989373207,-0.043824970722198486,0.26171568036079407,-0.06248725950717926,0.039810847491025925,0.02908971905708313,0.2874268591403961,0.03197705000638962,0.12030796706676483,-0.0965716689825058,0.01077080424875021,0.026667270809412003,0.02715868130326271,-0.14000298082828522,-0.13146676123142242,0.0014751020353287458,0.1330963671207428,0.1573198288679123,-0.07078436017036438,-0.05205091834068298,-0.01619076542556286,-0.02340095490217209,0.014305632561445236,0.06981395930051804,0.1650344878435135,0.029565101489424706,0.030913623049855232,4.0673185139894485e-06,0.08650641143321991,0.18456552922725677,0.0002720152260735631,0.09275227040052414,-0.19047962129116058,-0.028482811525464058,0.048871513456106186,0.1679963320493698,-0.046102602034807205,-0.026263324543833733,-0.08295724540948868,0.13524740934371948,-0.14221921563148499,0.21125528216362,0.038280732929706573,0.0005473774508573115,0.014455894008278847,0.013218533247709274,-0.016150617972016335,-0.007527117617428303,-0.022182434797286987,0.03527924790978432,0.02813921682536602,-0.027873815968632698,-0.020313899964094162,0.18963882327079773,0.13632488250732422,0.06488383561372757,-0.010566936805844307,0.05426478013396263,-0.2282431423664093,0.15935570001602173,0.06392248719930649,-0.049265362322330475,0.18968290090560913,0.03595869243144989,0.027354665100574493,-0.005067593418061733,0.052487410604953766,0.051158566027879715,-0.12229987978935242,0.01802975684404373,-0.11217223107814789,0.11553500592708588,-0.05004812031984329,0.02214030921459198,0.07376805692911148,0.19923436641693115,0.024099573493003845,-0.016192466020584106,-0.051436301320791245,0.031245900318026543,0.026910509914159775,0.0658719465136528,-0.026398461312055588,0.0634002685546875,-0.03219030424952507,-0.09627562761306763,-0.010474467650055885,-0.21173107624053955,-0.00886230356991291,0.0038082189857959747,-0.014971751719713211,0.048264048993587494,0.08281224966049194,-0.1441989690065384,-0.07338972389698029,-0.029454462230205536,-0.10490228235721588,-0.07019715756177902,0.010065492242574692,0.06115191429853439,-0.012919250875711441,-0.07235722988843918,0.03447768837213516,0.04787297919392586,0.005440203472971916,0.024139123037457466,-0.08470847457647324,0.11363398283720016,0.0967397391796112,0.0653163492679596,0.07497105002403259,-0.023821968585252762,0.04318856820464134,0.02808513306081295,0.009643939323723316,0.15778662264347076,-0.1643003672361374,0.08597926795482635,-0.028349341824650764,0.026533514261245728,0.06735363602638245,0.024113280698657036,-0.024341128766536713,-0.13855896890163422,0.021912621334195137,0.15031962096691132,0.016817975789308548,0.10172852128744125,-0.048012636601924896,-0.014228858053684235,-0.026128806173801422,-0.0024902047589421272,-0.03571600839495659,-0.01636061631143093,0.14388826489448547,-0.08107243478298187,-0.11538511514663696,-0.018520189449191093,-0.18771179020404816,0.013436132110655308,0.005442071706056595,0.019864508882164955,0.2100837528705597,-0.014156220480799675,-0.013474912382662296,-0.0024921749718487263,-0.0310256015509367,-0.005579726304858923,-0.003154004691168666,0.004528649616986513,0.03552132472395897,-0.019263774156570435,-0.05126703158020973,-0.0015834445366635919,0.04843322932720184,-0.007213663775473833,-0.023989178240299225,0.13542556762695312,0.1095530316233635,0.0008282898343168199,0.04611358791589737,-0.0929465964436531,-0.02556450478732586,-0.07514383643865585,-0.006530833430588245,-0.0792602077126503,-0.0551520399749279,-0.20763635635375977,0.1076841726899147,-0.09331545233726501,-0.05331039056181908,0.10079961270093918,0.059222184121608734,-0.06368792802095413,-0.012759227305650711,0.04701372981071472,-0.1477169245481491,-0.055945683270692825,0.033125508576631546,-0.07123596221208572,0.008370814844965935,-0.011850782670080662,0.17184731364250183,0.06666625291109085,0.00899114366620779,-0.03220690041780472,0.042774274945259094,0.10679382085800171,0.01019372884184122,-0.06053434684872627,0.05872160568833351,0.14986595511436462,-0.061845920979976654,0.07518056035041809,-0.014001329429447651,-0.06309627741575241,0.011282812803983688,0.01859905757009983,-0.03276465833187103,0.07425622642040253,0.06542114913463593,-0.006329837255179882,0.07701969891786575,-0.007323297206312418,-0.03905300423502922,0.0057842545211315155,-0.07342269271612167,-0.051924243569374084,0.0119345523416996,-0.21615442633628845,-0.013801638036966324,-0.013943351805210114,0.08701080828905106,-0.018289055675268173,-0.06445161253213882,0.06384480744600296,0.2175290435552597,0.05148785933852196,-0.03785287216305733,0.0018229135312139988,0.009310144931077957,-0.17588193714618683,-0.04396440088748932,-0.06093256548047066,-0.01799841970205307,-0.10950606316328049,0.01827874965965748,0.0044085741974413395,0.01622650772333145,0.002108123851940036,0.05862817168235779,-0.05909692123532295,0.07408112287521362,0.003181003499776125,-0.08433680981397629,0.029352275654673576,-0.18816548585891724,-0.030485281720757484,-0.1052563413977623,0.051441557705402374,-0.1455993801355362,0.06695077568292618,0.10442785918712616,0.07816839218139648,-0.08857342600822449,0.05371351167559624,-0.10014715790748596,-0.011094808578491211,-0.08325807750225067,0.08154280483722687,-0.1914423257112503,0.02902405522763729,-0.10207191854715347,0.029344400390982628,-0.035855263471603394,0.09600907564163208,0.09888246655464172,0.017676090821623802,-0.03228723630309105,0.14506788551807404,-0.1366516649723053,0.017840886488556862,-0.011695381253957748,-0.06043453887104988,-0.19049979746341705,-0.010800769552588463,0.05153601989150047,0.10356690734624863,-0.06879939883947372,0.027207497507333755,0.0062331571243703365,-0.01147877424955368,0.04373665899038315,0.0015684484969824553,-0.033058397471904755,-0.07473216950893402,0.0017874309560284019,-0.09798096120357513,-0.08246614038944244,0.03664136677980423,-0.017002955079078674,-0.19213908910751343,0.07126502692699432,-0.037622492760419846,-0.0509614571928978,-0.1957247257232666,-0.09735487401485443,0.01860424317419529,-0.16701044142246246,0.03391577675938606,-0.0757913738489151,0.028742879629135132,0.09190720319747925,-0.025238534435629845,-0.02169119566679001,-0.014820669777691364,-0.029131993651390076,0.07422719150781631,-0.026218362152576447,-0.11041510850191116,0.038559913635253906,-0.16650260984897614,-0.08697033673524857,-0.07204344123601913,0.1173175796866417,-0.07486023008823395,0.08987614512443542,0.0030891350470483303,-0.046249933540821075,0.07261455059051514,0.05871352553367615,-0.005894501227885485,-0.005891664884984493,-0.01826060377061367,-0.03739630803465843,0.014795459806919098,-0.07649260759353638,0.0013489328557625413,-0.1935548484325409,-0.18528024852275848,0.16536477208137512,-0.06764820963144302,0.03328809514641762,-0.07040330022573471,-0.04124896973371506,0.17606443166732788,0.016472604125738144,-0.06398168206214905,0.03019685484468937,0.12070869654417038,-0.08646565675735474,-0.1257053017616272,0.028136610984802246,0.02090371958911419,-0.1182030588388443,-0.02198452688753605,-0.16778741776943207,0.0706714615225792,-0.013585258275270462,-0.03477464243769646,0.03194790333509445,-0.05005738511681557,0.03276168927550316,-0.05646100267767906,-0.14230328798294067,-0.03670322895050049,0.009505551308393478,0.11959008872509003,0.08387674391269684,0.016667671501636505,-0.07161601632833481,-0.0021790526807308197,-0.017110740765929222,0.03407077118754387,0.08609291911125183,-0.014575122855603695,0.14620809257030487,0.09781467914581299,0.0760815441608429,0.01737605407834053,0.02142391912639141,-0.006798521149903536,0.0016915970481932163,-0.025647949427366257,-0.03921588137745857,0.028294838964939117,0.06763507425785065,-0.04502497985959053,0.002753275679424405,0.08526457101106644,0.045569270849227905,-0.06670881062746048,0.06916260719299316,-0.3070683777332306,0.3100206255912781,0.036162011325359344,-0.06072406843304634,-0.015528898686170578,0.056415580213069916,0.13022293150424957,0.1837242841720581,-0.06530221551656723,0.08579061180353165,-0.09202579408884048,-0.12431786209344864,-0.014113944955170155,0.019300417974591255,-0.035324327647686005,0.061649832874536514,-0.024324722588062286,-0.05732155218720436,0.030851567164063454,-0.01886158250272274,0.008574440144002438,-0.09358888864517212,0.02069748006761074,0.06045091524720192,-0.07275405526161194,0.003350897692143917,0.0467696487903595,0.10232110321521759,0.0200608279556036,-0.05691498890519142,-0.10385537892580032,0.0763232633471489,-0.025588762015104294,-0.007017820607870817,0.010482450015842915,-0.1944834589958191,-0.020262587815523148,0.053203605115413666,-0.0370093397796154,-0.045475542545318604,0.017703767865896225,-0.2698793411254883,-0.030255652964115143,0.09633396565914154,-0.0658692792057991,0.03700723871588707,0.09149935841560364,-0.0008697606390342116,0.10413702577352524,0.024551063776016235,0.02976248599588871,-0.12661407887935638,0.04926428198814392,0.0751786008477211,0.16188357770442963,0.007581507787108421,0.00922239851206541,0.05785180255770683,0.15834008157253265,0.14442673325538635,-0.22588767111301422,-0.08163405954837799,-0.045990437269210815,0.0031271714251488447,0.047134969383478165,-0.026439473032951355,0.07506287097930908,0.17223918437957764,0.10716422647237778,0.0687389001250267,0.0027049456257373095,-0.08365320414304733,-0.06098690629005432,-0.04916856437921524,0.1306336522102356,-0.04308667033910751,-0.09400976449251175,0.02350502461194992,-0.07060606777667999,0.09732148796319962,-0.07671830803155899,-0.12454380840063095,-0.21651744842529297,-0.03398191183805466,0.09305746853351593,-0.014252729713916779,0.11206799000501633,0.023264098912477493,-0.0527605377137661,0.10100014507770538,0.039162881672382355,0.06883341819047928,-0.00740074273198843,-0.01436531450599432,-0.11835554987192154,0.008805433288216591,-0.003371563972905278,0.048542313277721405,-0.0022831885144114494,-0.012449854984879494,-0.1255316138267517,-0.013000824488699436,-0.015547393821179867,-0.06617406755685806,-0.06413756310939789,0.057075630873441696,0.06767570227384567,0.14257369935512543,0.09748037904500961,-0.1262490451335907,0.025916069746017456,0.18597489595413208,-0.1481780707836151,0.03446406498551369,0.0026076785288751125,-0.15236930549144745,0.009785497561097145,-0.03978370502591133,0.018310746178030968,0.032732050865888596,-0.0004924030508846045,-0.04281741753220558,0.03107002004981041,-0.04317053034901619,-0.04847963899374008,-0.019736377522349358,0.09027041494846344,-0.05012722685933113,-0.004190005827695131,-0.0721176490187645,-0.0013358347350731492,0.1412823498249054,0.04864481836557388,0.07356087863445282,0.03928184509277344,-0.034712307155132294,0.04312759265303612,-0.07479098439216614,-0.12755364179611206,-0.0879053846001625,-0.022196674719452858,0.13312838971614838,0.02092800661921501,0.17215277254581451,0.0227087140083313,0.20944252610206604,-0.11322951316833496,-0.06337762624025345,0.01342045422643423,0.09422171115875244,0.012877549044787884,-0.05863475799560547,-0.1757693886756897,0.0010737120173871517,0.02734403684735298,0.15950430929660797,-0.013661811128258705,-0.025643421337008476,0.02071959525346756,-0.05598985776305199,0.07660841196775436,-0.07073237001895905,-0.14719319343566895,0.025120927020907402,-0.007897570729255676,-0.24049276113510132,0.13243608176708221,0.06131748482584953,-0.016625721007585526,-0.056070540100336075,-0.056197069585323334,-0.048333168029785156,-0.04612240567803383,0.22454088926315308,-0.11475683748722076,-0.11027918010950089,-0.04377610236406326,-0.0487651564180851,0.1523720771074295,0.04345620423555374,0.2258896827697754,0.04678795859217644,-0.06971646100282669,-0.022290853783488274,0.026362672448158264,-0.15352533757686615,-0.06004416570067406,0.009616781957447529,-0.07549646496772766,0.13761305809020996,0.09197555482387543,-0.03243454545736313,0.09682909399271011,0.0010882004862651229,-0.03812277689576149,-0.06413979083299637,0.20225748419761658,-0.05823318660259247,-0.015157260932028294,0.06053318455815315,0.0638427659869194,-0.044368986040353775,0.08569785952568054,-0.019663183018565178,-0.07041812688112259,0.037181176245212555,-0.0712779313325882,0.19547948241233826,0.023448292165994644,0.044703077524900436,-0.08570781350135803,0.0494476743042469,0.06893212348222733,0.13051113486289978,-0.020817244425415993,0.06798955798149109,-0.015199852176010609,-0.06859337538480759,-0.14031921327114105,0.2479867935180664,0.009244285523891449,0.04416986182332039,-0.02067536488175392,0.05974990501999855,0.00014767673565074801,-0.09467606246471405,0.15901675820350647,0.12185489386320114,0.0259622223675251,-0.01397276483476162,0.037054721266031265,-0.027216579765081406,-0.012872284278273582,0.10942485183477402,-0.02720092609524727,0.029819834977388382,-0.13241265714168549],"relevance_bias":-0.00656480947509408,"auxiliary_weight":[[-0.06985297054052353,-0.07531432062387466,-0.027787094935774803,0.02790142223238945,-0.09815679490566254,0.01918952167034149,-0.041312914341688156,0.007964731194078922,-0.07111192494630814,0.06611116230487823,-0.09715496748685837,-0.12491860240697861,-0.03005465306341648,0.053588010370731354,0.1712280958890915,-0.001361972652375698,0.02062220685184002,-0.0980687215924263,0.047939348965883255,0.06205091252923012,0.0006153932772576809,0.052369944751262665,-0.12081919610500336,0.043021541088819504,0.1667112112045288,-0.06990797072649002,-0.012327251024544239,-0.04199402034282684,0.07916127145290375,-0.012857937254011631,-0.02563561499118805,0.006567320320755243,-0.03650149703025818,-0.011577368713915348,0.14700257778167725,0.14362235367298126,0.0025609289295971394,0.08407293260097504,-0.021381977945566177,0.03812459856271744,0.07416552305221558,0.13781903684139252,0.1668674349784851,-0.04701809585094452,-0.04275020956993103,-0.141355961561203,0.06120717525482178,0.1473267376422882,-0.1196516677737236,-0.1752561628818512,-0.06373720616102219,0.016189882531762123,0.027969665825366974,0.04245401546359062,0.007638873066753149,0.04957527667284012,0.0931016355752945,0.032756973057985306,-0.08377151191234589,-0.009803883731365204,0.1573680192232132,0.20403490960597992,-0.09574520587921143,-0.0029190336354076862,-0.07608146965503693,-0.10925331711769104,0.0313291996717453,0.04087897762656212,-0.2480577528476715,0.0952792763710022,0.03908852860331535,0.1099778339266777,-0.0037322561256587505,0.182572603225708,-0.04118955880403519,-0.0581442266702652,-0.00457262247800827,0.014737078920006752,0.03816459700465202,0.021137980744242668,0.03480122610926628,-0.0028629861772060394,0.2758418619632721,0.0659809485077858,0.05709392949938774,0.060261957347393036,0.0807112604379654,0.10711125284433365,-0.004946657922118902,-0.06237585097551346,0.12001988291740417,0.089469313621521,-0.05704154074192047,0.07410139590501785,-0.03469196707010269,-0.0052210260182619095,-0.07766462862491608,0.014683982357382774,-0.08760526776313782,-0.038693368434906006,0.028331344947218895,0.021499162539839745,0.03701309114694595,0.03282172977924347,0.07322584092617035,0.010212831199169159,-0.0531742163002491,-0.0037048878148198128,0.057648975402116776,0.02844616025686264,0.13591963052749634,-0.04281420260667801,0.16386260092258453,-0.004371697083115578,-0.0466524213552475,-0.1438382863998413,-0.0537777915596962,0.025207269936800003,-0.01763281412422657,-0.0665888786315918,-0.19719260931015015,0.03292819857597351,0.26434916257858276,0.023374469950795174,0.05497822165489197,-0.03161758556962013,-0.012277629226446152,-0.04979598894715309,-0.0028918199241161346,-0.07916779816150665,-0.024568675085902214,-0.26254111528396606,0.05003385618329048,0.030487295240163803,-0.22457841038703918,0.025787709280848503,-0.026328369975090027,0.1634148508310318,-0.06546484678983688,0.0762915164232254,-0.004549299366772175,0.1203780472278595,0.013941737823188305,-0.011202678084373474,0.004942281171679497,0.25139299035072327,0.023433253169059753,-0.013098545372486115,0.0025503330398350954,-0.14159831404685974,-0.2527303397655487,-0.22126850485801697,-0.16038885712623596,-0.05152472108602524,0.07687206566333771,-0.03175092488527298,0.03725787252187729,-0.03981536999344826,-0.05683048069477081,-0.00667139608412981,0.19433948397636414,-0.022915955632925034,-0.023896493017673492,-0.01249306183308363,-0.2796202600002289,-0.18471959233283997,0.002391606103628874,0.10189175605773926,-0.006707109976559877,0.022801082581281662,-0.016488809138536453,-0.005073031410574913,-0.07177270203828812,-0.019795823842287064,0.052044741809368134,-0.21613645553588867,0.0033812473993748426,0.0010654495563358068,0.017573198303580284,-0.034736182540655136,0.011032474227249622,-0.24862761795520782,0.22653815150260925,0.004391685593873262,-0.08333133161067963,-0.08854255080223083,0.012093857862055302,0.17602422833442688,0.034688305109739304,-0.19221395254135132,-0.34542661905288696,0.010693932883441448,0.18758998811244965,-0.04840516299009323,-0.057126451283693314,-0.024511434137821198,-0.009757056832313538,0.09755371510982513,-0.020548421889543533,0.3458789885044098,0.06114017218351364,-0.03787311539053917,0.029831362888216972,0.09802083671092987,-0.047356490045785904,0.012342582456767559,0.07274481654167175,-0.008395582437515259,0.14528654515743256,0.012783636339008808,-0.053778164088726044,0.1032177060842514,0.059429481625556946,0.10738678276538849,0.0017233295366168022,0.049861397594213486,-0.08644817769527435,0.0041284868493676186,0.11466919630765915,-0.009134897030889988,0.2509019076824188,0.01734631136059761,0.007351910229772329,0.01715681329369545,0.04452051594853401,-0.0759529396891594,0.04734983667731285,0.010718639008700848,0.16749468445777893,0.0556429885327816,0.019366629421710968,-0.024253038689494133,0.0013611000031232834,0.14824070036411285,-0.030735354870557785,0.1616477519273758,0.023956451565027237,-0.05514712259173393,-0.004878888837993145,-0.1357526332139969,0.024639654904603958,0.12377727776765823,0.14929500222206116,-0.24953536689281464,-0.004118029028177261,-0.0674968957901001,-0.026334095746278763,-0.31335964798927307,-0.015278313308954239,-0.03618472442030907,0.1643027663230896,0.03783344477415085,0.03034365363419056,0.05239177867770195,0.10428308695554733,0.004945485852658749,-0.0021593666169792414,-0.033171143382787704,0.02919793501496315,-0.012289529666304588,0.17874638736248016,-0.03621450439095497,-0.014379636384546757,0.014084907248616219,-0.24236297607421875,-0.032264865934848785,-0.08682111650705338,0.10015948861837387,0.025363916531205177,0.021407155320048332,0.05288785696029663,0.03011779487133026,0.014925321564078331,-0.16244158148765564,-0.2801456153392792,-0.061231181025505066,-0.12948717176914215,0.00622755941003561,0.0046305167488753796,-0.0877438336610794,-0.0008545763557776809,0.06885069608688354,0.010123854503035545,-0.1783905178308487,-0.20785443484783173,-0.18078887462615967,-0.008324013091623783,-0.19799326360225677,0.05705997347831726,-0.06366318464279175,-0.17826493084430695,-0.01771591417491436,0.18590663373470306,-0.02196940965950489,-0.015711817890405655,0.1570119857788086,-0.08237501978874207,-0.036429859697818756,0.015154757536947727,-0.02092946507036686,0.2952885925769806,-0.024670686572790146,-0.07593878358602524,0.03257687762379646,-0.0743739902973175,0.027040615677833557,0.0408548004925251,-0.027163555845618248,-0.02496108040213585,0.015954654663801193,-0.005259946454316378,0.005955935921519995,0.07300599664449692,-0.06709153205156326,0.03775204345583916,0.02075927145779133,0.12047495692968369,0.0037467179354280233,-0.04003265127539635,-0.0072197504341602325,-0.02957776002585888,0.018331672996282578,-0.05450134351849556,0.05405617132782936,0.03165092691779137,-0.07086747884750366,0.01109325047582388,0.065113365650177,-0.11659690737724304,0.08573439717292786,0.03570665419101715,0.1958421915769577,-0.059503257274627686,0.018419092521071434,0.14341412484645844,0.07118958979845047,0.003056047949939966,0.09242496639490128,-0.03790455311536789,-0.04724812135100365,-0.24710999429225922,-0.014030533842742443,0.022444989532232285,0.01134538371115923,0.054191071540117264,-0.0937814712524414,-0.024256065487861633,-0.048796702176332474,-0.0010386466747149825,-0.0015516059938818216,-0.002094302326440811,0.04255004972219467,-0.030624371021986008,-0.14791584014892578,-0.07184945046901703,-0.050833892077207565,-0.14192631840705872,-0.06346447020769119,-0.0780053436756134,-0.22392258048057556,-0.0006516582798212767,0.0020043370313942432,-0.2231311947107315,0.06421466171741486,-0.01856350712478161,-0.10068465024232864,-0.04416646808385849,-0.20441047847270966,0.008857529610395432,-0.02422948181629181,0.004904850851744413,0.06824591755867004,-0.05388711765408516,-0.003227576147764921,0.07611630111932755,0.11329513788223267,-0.22681188583374023,-0.03525862470269203,0.06487368047237396,-0.1517992466688156,-0.014300664886832237,0.0005321662756614387,-0.022867480292916298,0.018993575125932693,0.0016170174349099398,-0.0017552042845636606,0.036763615906238556,0.019026979804039,0.03599519655108452,-0.0905500203371048,-0.042558543384075165,-0.004546093754470348,0.12028642743825912,0.08465741574764252,0.03245876729488373,-0.02912735566496849,-0.0728464350104332,0.1562986671924591,0.03503767400979996,0.15411095321178436,0.0087944520637393,-0.11832927167415619,0.02938852645456791,-0.019450273364782333,0.15332604944705963,-0.01203154493123293,0.03462241590023041,0.27099594473838806,-0.18940500915050507,0.14699552953243256,-0.042381007224321365,0.08957792073488235,-0.015259761363267899,0.023242410272359848,0.21281632781028748,0.04342253506183624,-0.052236396819353104,-0.05160939693450928,0.06083203852176666,0.01161822210997343,0.0022429400123655796,0.15305116772651672,-0.2901257276535034,0.009083552286028862,0.07072734832763672,-0.13853734731674194,-0.07814539968967438,0.10779255628585815,0.012589827179908752,-0.05983661115169525,-0.03011782467365265,-0.046274516731500626,0.11545580625534058,-0.09965085983276367,-0.2809700071811676,-0.052052609622478485,-0.022856928408145905,0.019935762509703636,-0.0030268568079918623,0.17558090388774872,-0.046637360006570816,0.0752701610326767,0.05297626182436943,-0.1529650092124939,-0.08156939595937729,0.26713332533836365,-0.0516190268099308,-0.015427694655954838,0.029188862070441246,-0.09417743235826492,-0.0367870032787323,-0.0457008071243763,-0.01631114073097706,0.2132996767759323,-0.03127085044980049,0.004575992468744516,0.04297090694308281,-0.09842757880687714,0.09884272515773773,0.04870013892650604,-0.08203243464231491,0.07596638053655624,0.0382971428334713,-0.12693355977535248,-0.11693686246871948,0.0010848483070731163,-0.07064949721097946,-0.14898556470870972,0.019715551286935806,-0.017578622326254845,-0.03249650076031685,-0.07439811527729034,0.009411917999386787,0.030272750183939934,-0.020302705466747284,-0.09067855775356293,-0.05833863839507103,-0.25303345918655396,0.022787177935242653,0.05943380296230316,-0.01611139439046383,0.18818524479866028,-0.05934017524123192,-0.010124510154128075,-0.14518021047115326,-0.07528091967105865,0.0027016266249120235,0.06089796870946884,0.04321134090423584,-0.003368082456290722,0.006315518636256456,-0.012330245226621628,0.16920647025108337,0.04237549006938934,-0.0020535157527774572,-0.06130377575755119,-0.006244090851396322,-0.0277064498513937,0.03512391075491905,0.011418352834880352,0.05851248651742935,-0.002031744457781315,-0.14843642711639404,0.02576972357928753,-0.026165535673499107,0.17750999331474304,0.05809305980801582,0.06690617650747299,-0.14509262144565582,0.09317481517791748,-0.013580689206719398,-0.004386794753372669,0.012118336744606495,0.024905232712626457,-0.165488600730896,-0.21988822519779205,-0.15396782755851746,-0.03359154239296913,0.008927407674491405,0.07497287541627884,0.060275599360466,0.041782595217227936,-0.06214306876063347,0.02470914088189602,0.06364057213068008,-0.024372251704335213,-0.049860645085573196,-0.11887361854314804,-0.125896617770195,0.026302197948098183,-0.046991705894470215,-0.24815237522125244,0.27406978607177734,0.07594538480043411,0.1493857502937317,-0.02977462112903595,0.0031379840802401304,-0.10591187328100204,0.255844384431839,0.14313426613807678,-0.03933795168995857,-0.2959994971752167,0.24346794188022614,-0.03590774163603783,-0.12267417460680008,0.05226913467049599,-0.011243388056755066,-0.016305183991789818,0.032972823828458786,0.053452298045158386,0.23224665224552155,-0.050456054508686066,0.05732305720448494,-0.013411188498139381,-0.0561947375535965,-0.033753424882888794,0.1741061806678772,-0.02811408042907715,-0.034249041229486465,-0.020169932395219803,0.13002844154834747,0.1701936423778534,-0.009394809603691101,-0.03246266767382622,-0.22656461596488953,-0.08609119057655334,0.045837562531232834,-0.04110719636082649,0.010595584288239479,-0.040544766932725906,0.09438391029834747,-0.08220657706260681,0.12291522324085236,-0.07133425772190094,-0.28746265172958374,-0.05376958101987839,-0.007680867332965136,0.03638176620006561,-0.028644148260354996,-0.13867615163326263,-0.10735488682985306,-0.07349614053964615,0.08508734405040741,-0.007712021004408598,-0.14254091680049896,-0.1953783929347992,-0.1605999618768692,0.1448715776205063,0.13999231159687042,-0.1380494385957718,0.14550326764583588,-0.06077706441283226,-0.059298060834407806,0.037659741938114166,-0.015751825645565987,-0.169520765542984,0.07821523398160934,0.004848461132496595,-0.034972283989191055,0.03943084925413132,0.1934507191181183,0.03879133611917496,-0.13448457419872284,-0.0412956140935421,-0.0021501665469259024,0.08297545462846756,-0.18035058677196503,0.059460245072841644,0.00830908864736557,-0.002986604580655694,-0.08090769499540329,-0.04925572872161865,0.1533152014017105,0.003473803633823991,0.022559139877557755,-0.11034218966960907,-0.04467589035630226,0.08337759971618652,0.08361990004777908,0.027325903996825218,0.08275187015533447,0.10915994644165039,-0.07370294630527496,0.020390944555401802,-0.07249809056520462,-0.18127323687076569,-0.06719663739204407,0.02229107916355133,0.07467908412218094,-0.008425639010965824,0.027717139571905136,-0.03815191984176636,-0.025621090084314346,0.032983630895614624,-0.14867815375328064,-0.06219986453652382,-0.045924387872219086,-0.009928585030138493,0.08135523647069931,-0.05237659439444542,-0.1318022459745407,-0.009762200526893139,0.2223944365978241,0.1198994591832161,-0.0539991520345211,-0.06995820254087448,0.16879095137119293,-0.012813486158847809,-0.06583566218614578,-0.003659614594653249,0.04552118852734566,0.1786368191242218,-0.026378106325864792,0.0746091827750206,0.017827626317739487,0.02968274988234043,0.18128980696201324,-0.141990527510643,-0.030145611613988876,0.0036566718481481075,-0.02181307226419449,-0.03106449730694294,0.14988547563552856,0.00012080196756869555,0.017655421048402786,0.18980175256729126,-0.10074475407600403,-0.012711644172668457,0.08943045139312744,0.18970738351345062,0.18305951356887817,0.02718171291053295,-0.15426470339298248,0.07247462868690491,-0.04556875675916672,-0.029605209827423096,0.19686387479305267,0.019811507314443588,0.021041594445705414,-0.11013981699943542,0.039170436561107635,0.009816985577344894,0.0011582501465454698,-0.1659597009420395,0.047984033823013306,0.07546554505825043,0.11686760932207108,0.03326217457652092,-0.031517863273620605,0.08297925442457199,0.04518015682697296,0.012555698864161968,-0.20203103125095367,-0.09144390374422073,0.018620235845446587,-0.08076271414756775,-0.1697256863117218,0.17212320864200592,0.03770921379327774,0.008738298900425434,-0.002577426377683878,0.015360555611550808,-0.0077581508085131645,-0.030188115313649178,0.11279775202274323,-0.03141431882977486,-0.1736913025379181,0.04440312460064888,-0.17180296778678894,0.08520930260419846,0.019794976338744164,0.00042499887058511376,-0.01985764689743519,0.03613262251019478,-0.0380883626639843,-0.01336988341063261,0.13239902257919312,0.15202899277210236,0.020933082327246666,0.020524991676211357,-0.2546682357788086,0.004858857486397028,-0.04079844430088997,-0.05380231514573097,0.031046869233250618,-0.04019821807742119,0.03487731143832207,0.2540423572063446,-0.015953702852129936,-0.00793498195707798,-0.02499743178486824,0.0017351843416690826,0.006255812011659145,-0.0803738534450531,0.005131175741553307,-0.07118356227874756,-0.04751087352633476,0.1381569802761078,0.21431611478328705,-0.0784599706530571,0.013801376335322857,0.0031362667214125395,0.03127192705869675,0.17122727632522583,-0.06007332727313042,-0.0005569056374952197,0.1382916420698166,0.0720442682504654,0.0005437873769551516,0.05550142750144005,0.11174952983856201,-0.14839687943458557,0.030268574133515358,0.08845784515142441,0.00438187038525939,-0.03584596887230873,-0.026542572304606438,0.1541043370962143,-0.07423117756843567,0.020384103059768677,-0.04986921325325966,0.03297392278909683,-0.07589716464281082,0.01365822646766901,-0.1392267495393753,0.0768892765045166,-0.004149199463427067,-0.2775944769382477],[-0.03604099899530411,-0.06090729311108589,0.04688986390829086,0.08060083538293839,0.029587289318442345,0.017388954758644104,-0.04755005985498428,0.015626009553670883,0.04630960151553154,0.05500213801860809,0.04598655924201012,0.056861214339733124,0.0489799827337265,0.020730577409267426,-0.02291979268193245,-0.03094467893242836,0.044062770903110504,0.06274858862161636,0.05193415284156799,0.08023093640804291,-0.06475412100553513,0.045268479734659195,0.03043457120656967,0.05348537117242813,0.0642823576927185,0.01333045307546854,-0.011878546327352524,0.05873718112707138,0.07201902568340302,-0.02882125787436962,0.045611657202243805,0.05621476098895073,-0.0761023685336113,0.038543641567230225,0.062416139990091324,-0.012932436540722847,-0.06452136486768723,-0.04656461626291275,-0.07509735226631165,0.06259454041719437,-0.01510891504585743,0.08111339062452316,-0.03970401734113693,-0.05007350444793701,0.07999391108751297,-0.015393531881272793,0.021439237520098686,-0.069883331656456,-0.04764285311102867,-0.07288838177919388,-0.06748353689908981,-0.024572445079684258,-0.033279694616794586,0.06938517838716507,-0.08012869954109192,0.047905854880809784,0.05151606351137161,-0.08153805881738663,0.04463926702737808,-0.04952717199921608,-0.041282836347818375,-0.050090525299310684,-0.06744600087404251,0.02066422812640667,0.04747093468904495,-0.05414595082402229,-0.06459242850542068,-0.03467899188399315,-0.06429385393857956,0.06088246777653694,-0.016986435279250145,0.07164428383111954,-0.008409278467297554,0.07706926763057709,-0.05851127207279205,0.01560073159635067,0.03127642348408699,0.04653913527727127,-0.030449390411376953,-0.06890089064836502,0.010984672233462334,0.02929455228149891,-0.043353963643312454,0.0818227082490921,-0.0687369853258133,-0.05716521665453911,-0.06316553801298141,0.0798785537481308,0.04443996772170067,-0.06632708013057709,-0.06185678392648697,0.051389072090387344,0.03880345821380615,0.025865592062473297,-0.03947875276207924,0.013904286548495293,-0.020143376663327217,0.02221817336976528,0.034055713564157486,0.046792011708021164,-0.07345938682556152,0.062216177582740784,0.014967996627092361,-0.06798158586025238,0.05744096264243126,0.05121777579188347,0.02753535471856594,0.06983714550733566,-0.051144231110811234,0.036800336092710495,0.0706455186009407,0.05968785285949707,0.014600438065826893,-0.05450386926531792,0.064014732837677,-0.0410611592233181,-0.04509957507252693,-0.08136551082134247,0.013346461579203606,-0.03426960110664368,-0.05894732102751732,0.03652461990714073,0.03286496177315712,0.01909409463405609,0.054231878370046616,-0.04112914204597473,-0.06953024119138718,-0.06241568550467491,0.052049290388822556,-0.028425702825188637,-0.0681089386343956,0.05063844844698906,-0.06460244208574295,-0.03335652872920036,-0.06856736540794373,0.05531202256679535,0.07403305172920227,-0.05423915013670921,-0.0553123876452446,0.05158388987183571,0.03488641604781151,-0.01826515793800354,-0.07655157148838043,-0.07219339907169342,-0.031029364094138145,-0.0872911587357521,-0.013077693060040474,0.07274965941905975,-0.023107457906007767,-0.050740670412778854,-0.019149627536535263,0.0423634797334671,-0.0170576311647892,-0.04101242870092392,-0.07904102653265,0.06520397961139679,0.051362425088882446,-0.019247742369771004,-0.02759220078587532,0.04187718778848648,-0.014592245221138,0.0332292877137661,-0.018221411854028702,0.05847075581550598,-0.08933310955762863,-0.038466744124889374,-0.07086127996444702,-0.05241367220878601,0.07983356714248657,0.026814054697752,0.061212558299303055,0.05085895583033562,-0.027060339227318764,0.020720018073916435,0.08042513579130173,-0.005936556030064821,0.02127661556005478,0.07694252580404282,-0.03727828338742256,-0.050475090742111206,-0.06004815548658371,-0.020961478352546692,0.05740702524781227,0.018037600442767143,-0.033063169568777084,-0.07640770077705383,-0.018234480172395706,-0.041937410831451416,-0.03764680027961731,-0.03043949417769909,-0.06171727925539017,0.08284015208482742,-0.06615745276212692,-0.048286885023117065,-0.013976509682834148,0.061914462596178055,-0.0673685073852539,-0.062162019312381744,0.05458942800760269,0.08738190680742264,-0.03208880499005318,0.0823337510228157,-0.017873845994472504,0.012702303007245064,-0.011437092907726765,0.06021479144692421,0.06514071673154831,-0.060365546494722366,0.07116642594337463,0.03296555206179619,-0.035805076360702515,-0.015112286433577538,0.054247211664915085,0.034665320068597794,0.013697465881705284,0.07843601703643799,0.016458289697766304,-0.018939290195703506,-0.06933659315109253,0.03858945146203041,0.013627380132675171,0.02238975092768669,-0.06337058544158936,-0.0416349396109581,-0.0472315177321434,-0.05223838984966278,0.06321385502815247,0.03375372290611267,-0.0726349800825119,-0.0253099724650383,-0.074465811252594,-0.024585014209151268,-0.03984864428639412,0.012870554812252522,-0.026643233373761177,0.034597791731357574,0.021954838186502457,-0.018079252913594246,-0.07259522378444672,0.021817056462168694,0.041221220046281815,-0.04454202204942703,0.03426896408200264,0.024071164429187775,0.014613742008805275,-0.06947740167379379,-0.033082932233810425,-0.03756813704967499,-0.029814178124070168,-0.0141292754560709,0.050680678337812424,0.01807350665330887,0.020668519660830498,-0.08078739792108536,-0.03475093096494675,0.07325054705142975,0.03535659611225128,-0.01864277757704258,0.080245241522789,-0.019178539514541626,-0.02763385698199272,-0.08294249325990677,-0.02693129889667034,0.020816819742321968,-0.016668781638145447,0.058603279292583466,0.07999206334352493,-0.06831328570842743,-0.06783101707696915,0.0654524490237236,-0.03928035497665405,0.013099739328026772,0.0696801245212555,0.007604936603456736,-0.04733346030116081,-0.070710688829422,-0.06413659453392029,-0.05163408815860748,-0.01645238883793354,-0.03315578028559685,0.02156144194304943,-0.05569073557853699,-0.02828565053641796,0.056697044521570206,-0.016529103741049767,-0.02765471860766411,0.06040464714169502,-0.014278336428105831,0.08399207144975662,-0.028146173804998398,-0.06481397151947021,-0.05807380750775337,0.043678656220436096,0.05588600039482117,-0.014263208024203777,0.0464036725461483,-0.05488322302699089,0.02526378631591797,0.018700676038861275,-0.020722607150673866,0.0708623081445694,0.02995053492486477,-0.05168004333972931,0.05559329688549042,0.014650721102952957,-0.013164420612156391,-0.06450176239013672,-0.04457953944802284,0.02214069664478302,0.033765505999326706,-0.05465339124202728,0.05003149062395096,-0.05588369816541672,0.06089235842227936,-0.016618793830275536,-0.012882616370916367,0.07513024657964706,-0.022597646340727806,-0.033124685287475586,0.03510833904147148,-0.07663830369710922,0.0699988380074501,0.043436937034130096,-0.05791325867176056,-0.020605307072401047,-0.04569892957806587,-0.07152847945690155,-0.016537874937057495,-0.04841194674372673,-0.030058356001973152,-0.05799764022231102,0.04838687181472778,0.04464327171444893,-0.045773886144161224,0.015129909850656986,0.0338088683784008,-0.01795787364244461,-0.014443222433328629,-0.056458912789821625,-0.05967380478978157,0.02402011677622795,-0.016522441059350967,0.012692706659436226,-0.039388202130794525,0.02757006511092186,-0.028627105057239532,-0.06314348429441452,0.03383186459541321,-0.05007186532020569,-0.058960795402526855,0.040688406676054,-0.04873202368617058,0.025179792195558548,0.06425721198320389,-0.02499193511903286,0.060372281819581985,-0.04392480105161667,-0.03854804113507271,0.060862887650728226,-0.02244771458208561,-0.08095011860132217,0.02263382449746132,-0.07204016298055649,0.06060682609677315,-0.05415237322449684,-0.015038794837892056,0.027803806588053703,-0.04103175550699234,0.05806201323866844,0.017507614567875862,0.06885882467031479,0.032689064741134644,-0.03113342635333538,-0.03252946212887764,0.05014573410153389,0.03812669217586517,-0.05574772506952286,-0.06607415527105331,0.05220137536525726,-0.04099133983254433,0.0447394922375679,-0.0734972208738327,0.07023327052593231,0.05859355255961418,-0.020367145538330078,0.07775279879570007,-0.03501296788454056,-0.037932030856609344,0.023741578683257103,-0.05495443567633629,-0.014524167403578758,-0.023142235353589058,0.029591279104351997,0.04862915724515915,-0.0259005855768919,0.02601686865091324,0.029880283400416374,0.045965179800987244,-0.018683912232518196,0.018154894933104515,-0.07843632251024246,-0.015541153959929943,0.03315156325697899,0.08111361414194107,0.04553750529885292,0.06835882365703583,0.07803907990455627,0.038065798580646515,-0.05402127653360367,-0.07000464200973511,-0.037349238991737366,0.03271790221333504,0.014675967395305634,0.02852712944149971,-0.022105172276496887,0.08025085926055908,-0.01261263806372881,0.04973948001861572,0.027458978816866875,0.03745364025235176,0.04857844486832619,0.02305612340569496,-0.06966963410377502,-0.06286534667015076,0.03963765501976013,-0.019814709201455116,-0.0632457360625267,0.08373972028493881,-0.04987384378910065,0.05750361829996109,-0.0795690268278122,-0.01919468678534031,0.05423149839043617,-0.038283880800008774,0.000825080438517034,0.03817697986960411,-0.06820380687713623,0.04421794041991234,-0.01940532959997654,-0.06010650843381882,-0.06606089323759079,0.04429881274700165,0.05838887020945549,0.02831241302192211,0.06154144927859306,0.042572759091854095,0.03357338160276413,-0.02447088249027729,-0.06230979040265083,0.06011253595352173,-0.04044730216264725,-0.04849499464035034,0.07549263536930084,0.08384090662002563,0.08107415586709976,-0.018486974760890007,-0.07421017438173294,0.02696695365011692,0.05910440906882286,-0.06815019994974136,0.07107999175786972,0.012711719609797001,0.07682950049638748,0.06482095271348953,-0.05326374992728233,-0.0831635370850563,-0.05198115482926369,-0.07108058035373688,0.046720508486032486,0.037488482892513275,-0.08106536418199539,0.02478944882750511,0.01390754897147417,-0.013693176209926605,-0.052535172551870346,-0.07184974104166031,-0.0450035035610199,-0.06569176912307739,-0.06043049320578575,-0.06925273686647415,-0.020644744858145714,0.027150170877575874,0.06106921285390854,-0.03847409784793854,-0.0543459914624691,-0.04239737614989281,0.01753329299390316,-0.05281539633870125,-0.05816797912120819,0.04682396724820137,0.07478228956460953,-0.0283502247184515,-0.04492180794477463,-0.05875248834490776,0.021793382242321968,-0.04920664802193642,-0.0699869766831398,-0.0801183357834816,0.07011587172746658,0.0520329624414444,-0.036280542612075806,0.014673011377453804,0.07620485872030258,0.028295326977968216,-0.019377894699573517,-0.06463144719600677,-0.0223433505743742,0.03493581712245941,0.035305965691804886,-0.03163400664925575,-0.05272054299712181,-0.06116989254951477,-0.01599433459341526,0.04116523265838623,0.0556306391954422,0.03334880992770195,-0.06558153033256531,-0.01824331469833851,-0.0715288519859314,0.0759744867682457,0.07009688764810562,0.055385690182447433,0.05369807034730911,-0.05672338232398033,0.0572180449962616,-0.06139558181166649,-0.03399783745408058,-0.018167613074183464,-0.07376979291439056,-0.06943215429782867,-0.04749090224504471,0.023530935868620872,-0.03619420900940895,0.04806123673915863,0.06027055159211159,0.04067360609769821,-0.06438825279474258,-0.037804290652275085,0.05448180064558983,0.034488238394260406,-0.03475135192275047,0.061454806476831436,0.06144949793815613,0.01611989177763462,-0.03815847262740135,0.058310750871896744,-0.0697324201464653,0.056136179715394974,0.05973296985030174,-0.06009553372859955,-0.02602197416126728,0.036913495510816574,0.047232676297426224,-0.0796874538064003,-0.02617589570581913,0.024501003324985504,0.0816134363412857,-0.05829823389649391,0.07359402626752853,-0.05590071156620979,-0.0638391524553299,-0.048998769372701645,0.07690060138702393,0.0592755489051342,0.0457407683134079,0.03513210266828537,-0.07919734716415405,0.05480141565203667,-0.019252313300967216,0.08086303621530533,0.03011288307607174,0.0286545492708683,-0.04529235139489174,0.07329374551773071,0.011752189137041569,0.0388030931353569,-0.027231507003307343,-0.04135939106345177,-0.04953525587916374,-0.04983729124069214,-0.041501663625240326,-0.06163683533668518,-0.04502955451607704,-0.041556648910045624,-0.035339176654815674,0.044817350804805756,0.06693478673696518,0.02019055373966694,-0.03877273201942444,-0.057569537311792374,-0.02445162646472454,0.020831506699323654,-0.021817946806550026,0.0846593976020813,0.06211654096841812,0.03206990659236908,0.03609083592891693,-0.03309934586286545,0.06163549795746803,-0.08202626556158066,0.03650959953665733,-0.07970713824033737,0.06993607431650162,-0.07481317222118378,-0.055726680904626846,-0.07780660688877106,-0.02888386696577072,0.07949896156787872,-0.04470018297433853,-0.04134368896484375,-0.05172698199748993,0.06337622553110123,-0.03167588636279106,-0.020848318934440613,0.07771647721529007,-0.03257214277982712,-0.04428572952747345,0.017403878271579742,0.01946011558175087,0.0500776581466198,0.06958375871181488,0.036749716848134995,0.08488260954618454,-0.02931121736764908,0.027247300371527672,0.030551910400390625,0.012566586025059223,-0.024917392060160637,-0.06265566498041153,-0.07572805136442184,-0.05786893516778946,0.01270721759647131,0.02976405806839466,0.044854965060949326,0.07163707911968231,0.03707039728760719,-0.055383630096912384,-0.03729967772960663,0.08091587573289871,-0.08182969689369202,-0.025550350546836853,0.04029742255806923,-0.07145250588655472,-0.019005529582500458,-0.06144115701317787,0.048353664577007294,0.025153983384370804,0.04584749788045883,-0.055576104670763016,-0.07055752724409103,0.03201531991362572,-0.04604683443903923,0.07824554294347763,-0.014968457631766796,0.04751550406217575,0.019926657900214195,0.0587201789021492,-0.08019356429576874,-0.07589859515428543,0.05910995602607727,0.041568536311388016,0.05534987896680832,-0.04353947937488556,-0.053992997854948044,-0.03346962109208107,-0.029220473021268845,-0.07546375691890717,-0.036483123898506165,-0.02721242606639862,-0.07683991640806198,-0.019303588196635246,0.01964498870074749,0.07444129139184952,-0.015154835768043995,0.07774564623832703,-0.010204880498349667,-0.027086660265922546,0.06056160107254982,0.038226258009672165,-0.01631222665309906,-0.08204475045204163,0.03018045797944069,0.021019339561462402,0.009087207727134228,0.02334616146981716,-0.045273557305336,-0.025390954688191414,0.047088682651519775,-0.03398050367832184,0.0350741483271122,0.04435208812355995,0.01721370778977871,0.048989661037921906,0.050323303788900375,-0.02534901537001133,0.062177419662475586,-0.04896661266684532,0.06444429606199265,0.06472057849168777,-0.03690653666853905,0.03406282141804695,-0.015842923894524574,0.0429883636534214,-0.017131982371211052,-0.051631759852170944,-0.07482026517391205,-0.03931925818324089,-0.011706721968948841,-0.049983274191617966,0.02230820246040821,0.07204128056764603,-0.028186090290546417,-0.030164184048771858,0.056388672441244125,-0.07748051732778549,-0.08306238800287247,-0.019161801785230637,-0.01721959374845028,-0.03932167589664459,0.06820008158683777,-0.04081355780363083,0.04067077860236168,-0.07522774487733841,-0.030440162867307663,-0.028331663459539413,0.06531686335802078,0.03562071919441223,0.07696668058633804,0.07668814808130264,-0.023680169135332108,-0.01878090389072895,-0.017467129975557327,0.05074267461895943,-0.019513607025146484,0.026334432885050774,-0.044639475643634796,0.08185727149248123,0.05747530981898308,-0.07728249579668045,0.050873834639787674,-0.044733185321092606,-0.045736540108919144,-0.06913558393716812,0.03181176260113716,-0.012680075131356716,0.07810356467962265,0.04098373278975487,0.08185601234436035,0.04148181527853012,0.07275418192148209,-0.029236536473035812,-0.030664457008242607,-0.07563602924346924,-0.05310564860701561,-0.023143000900745392,0.028457259759306908,-0.028569461777806282,0.042945779860019684,-0.022357488051056862,-0.02499372512102127,-0.06595421582460403,-0.07375913113355637,0.0310071874409914,-0.013700217939913273,0.028416087850928307,0.042212020605802536,0.08274510502815247,-0.061813972890377045],[-0.00202379678376019,-0.020351462066173553,-0.01215054839849472,-0.04796065390110016,0.01531543955206871,-0.03420446813106537,0.017158079892396927,-0.015757005661725998,-0.0032468282151967287,0.006398968398571014,-0.01137837115675211,0.022104263305664062,0.0279194638133049,-0.037952594459056854,0.049630746245384216,0.023995064198970795,0.022638976573944092,-0.12403106689453125,0.014823303557932377,-0.0024286736734211445,-0.04468148201704025,-0.06686509400606155,0.10502948611974716,-0.04687713459134102,0.014978637918829918,-0.02726234868168831,-0.008953461423516273,-0.0018784711137413979,-0.014501883648335934,-0.018543537706136703,-0.0014170034555718303,0.006843962706625462,0.023221993818879128,-0.04860132932662964,0.01505463570356369,-0.005508491303771734,0.03553707152605057,-0.2135877013206482,0.09475482255220413,-0.03378238528966904,0.04708612337708473,0.011870881542563438,-0.08928167819976807,0.04822172969579697,-0.013096052221953869,-0.023895321413874626,0.017468653619289398,0.05200834199786186,0.09603507816791534,-0.12167147547006607,-0.013145144097507,0.052487563341856,-0.026309331879019737,-0.05161857604980469,-0.0023775568697601557,-0.0484762005507946,-0.18747073411941528,0.009628908708691597,-0.023733634501695633,0.029958458617329597,-0.04449537396430969,0.07905584573745728,0.07063528150320053,-0.00461112055927515,-0.005578497890383005,-0.057501170784235,-0.18430356681346893,-0.04194464161992073,0.20789988338947296,-0.035504698753356934,-0.05088622123003006,0.048990461975336075,-0.12638255953788757,-0.019539188593626022,-0.011347642168402672,-0.01059058029204607,-0.0018242012010887265,-0.07354973256587982,-0.0061405254527926445,-0.0227472186088562,-0.04162657633423805,-0.021817004308104515,0.1515137106180191,-0.027437293902039528,0.02514827251434326,0.07532384246587753,0.014532612636685371,-0.048259422183036804,0.00031869448139332235,-0.005728546530008316,0.05345548689365387,-0.018093664199113846,0.01941060647368431,-0.029610544443130493,0.029751703143119812,0.019044283777475357,0.007476720027625561,0.020068330690264702,0.021951960399746895,-0.15221183001995087,0.026158805936574936,-0.028754238039255142,-0.00019909822731278837,-0.015645258128643036,0.008766009472310543,-0.023429011926054955,-0.08709617704153061,-0.03978506103157997,0.007723587099462748,-0.003951599821448326,-0.020706161856651306,0.019431468099355698,-0.018043499439954758,0.0075973947532474995,0.012733523733913898,-0.018500935286283493,0.043249648064374924,-0.0027282321825623512,-0.03231152147054672,0.0364367812871933,0.025821171700954437,-0.04803837090730667,-0.04072137176990509,0.06389207392930984,-0.01581786945462227,0.11609096825122833,-0.009297432377934456,0.005240371450781822,-0.015182031318545341,0.02904408983886242,-0.03604292497038841,-0.0045959437265992165,0.001823682920075953,0.002140224212780595,0.02697533182799816,-0.014829140156507492,0.03087455779314041,-0.23091921210289001,0.06028569117188454,0.005790167488157749,-0.061809439212083817,0.014202284626662731,0.014245177619159222,-0.074553482234478,0.021212950348854065,0.22977928817272186,-0.0025758473202586174,-0.023819494992494583,0.01579240895807743,-0.039616189897060394,-0.07930418103933334,0.021123597398400307,0.2207413613796234,0.024034462869167328,-0.04708729311823845,0.024253787472844124,0.03529774025082588,0.009018740616738796,0.05846723914146423,-0.058856476098299026,0.28832781314849854,-0.06554769724607468,0.002009040443226695,-0.015478377230465412,0.24084168672561646,0.01543473917990923,0.06936176866292953,-0.029914673417806625,-0.026062145829200745,-0.005783394910395145,-0.04747205227613449,-0.05827522277832031,-0.03289463371038437,-0.03382878005504608,0.1146930530667305,0.22681327164173126,-0.002990925218909979,-0.06927440315485,-0.006545286625623703,-0.028634769842028618,0.038438569754362106,0.12231064587831497,0.17925754189491272,-0.025229886174201965,0.02504299208521843,0.03959966078400612,0.03475198149681091,0.0362437479197979,-0.0034181249793618917,0.0004604377318173647,-0.22446653246879578,-0.007617640309035778,0.01771409623324871,0.050290316343307495,0.008123570121824741,0.012463971972465515,0.0231989324092865,0.07964611798524857,-0.1261228322982788,0.3050483167171478,-0.03076806664466858,-0.035295795649290085,0.02599644847214222,-0.006127811968326569,0.013436765410006046,0.012882821261882782,-0.06161065399646759,0.03055562451481819,0.013077314011752605,0.005821998231112957,-0.0027366853319108486,0.09904970228672028,0.046403951942920685,0.06830920279026031,-0.01716565527021885,-0.007192450575530529,-0.12974601984024048,-0.04432405158877373,0.01650424674153328,-0.008450927212834358,0.18483126163482666,-0.024797402322292328,0.0076802801340818405,0.03264632821083069,0.00804418046027422,0.01869068294763565,-0.07910272479057312,-0.04514608159661293,0.03925089165568352,0.04167550802230835,0.01364406943321228,0.0019727281760424376,0.059005025774240494,0.062011029571294785,0.021772315725684166,-0.013568252325057983,-0.04593103006482124,0.008659569546580315,0.005600097589194775,-0.0022098131012171507,-0.029273759573698044,0.041850894689559937,-0.028957411646842957,-0.031146235764026642,-0.00040107592940330505,-0.14996448159217834,0.012778001837432384,-0.2556203603744507,0.0020759019535034895,0.05117040500044823,0.028875140473246574,-0.13918595016002655,-0.020451942458748817,0.02877640351653099,-0.006626207381486893,-0.06904549151659012,-0.014869078062474728,0.04321453720331192,0.01635623164474964,-0.014521930366754532,0.06549431383609772,-0.00802412535995245,0.03193419799208641,-0.04376776143908501,0.08540015667676926,0.003813394345343113,0.08643532544374466,0.06206737458705902,0.0013549114810302854,-0.03870462626218796,-0.007966234348714352,0.030680254101753235,0.015048792585730553,0.025464940816164017,-0.1497662365436554,0.04892217740416527,0.023334210738539696,-0.005396776832640171,0.040930137038230896,-0.008122210390865803,-0.0417027473449707,-0.05924927070736885,0.00958290509879589,0.18229316174983978,0.06127678230404854,0.13408108055591583,-0.002766596619039774,0.019213713705539703,0.010706139728426933,-0.02333805523812771,-0.016567286103963852,-0.021776288747787476,0.06341757625341415,-0.040545716881752014,-0.1951155662536621,-0.1096818596124649,-0.07375964522361755,0.026976581662893295,-0.048736684024333954,-0.004079521168023348,0.32770296931266785,-0.007811941672116518,-0.01159500889480114,-0.04672940447926521,0.04019390791654587,0.03202082961797714,0.01913146674633026,0.03079313598573208,0.01228551845997572,0.026502888649702072,-0.02422366850078106,-0.012277211993932724,-0.03447097912430763,-0.021386338397860527,0.007487295661121607,0.019210025668144226,0.004550006240606308,0.038856614381074905,0.03325920179486275,-0.0672420859336853,0.04550502821803093,-0.024903632700443268,-0.040365900844335556,-0.06671760976314545,-0.007275295909494162,-0.2258831411600113,0.055606741458177567,-0.05210130289196968,-0.016575414687395096,0.07532897591590881,0.04373418167233467,0.029091274365782738,-0.054119773209095,0.02891273982822895,-0.15578778088092804,-0.04407249018549919,0.0688549280166626,-0.024789372459053993,-0.011238020844757557,-0.00047502253437414765,0.062323037534952164,0.05409320443868637,0.02747567556798458,0.03244930878281593,-0.026955630630254745,0.010277878493070602,0.03221770003437996,0.0044668857008218765,0.04828967899084091,0.0012099002487957478,-0.04056477174162865,0.0019001162145286798,-0.015015965327620506,-0.027059610933065414,-0.009824655018746853,-0.014162646606564522,-0.12386037409305573,0.028996437788009644,0.02304844558238983,-0.1140766367316246,0.00524491723626852,-0.05615933611989021,0.04515687748789787,0.005199979990720749,-0.12059525400400162,0.010118247009813786,-0.03223542496562004,-0.03187904879450798,-0.051230039447546005,-0.013886308297514915,-0.03176249563694,-0.01823839545249939,0.007966487668454647,0.046862322837114334,0.14535683393478394,-0.03807423636317253,-0.06608492881059647,0.035647984594106674,-0.034743428230285645,-0.04435799643397331,-0.011222242377698421,-0.04452948272228241,-0.004101462662220001,-0.030882949009537697,0.02297600917518139,-0.02459835447371006,0.014024299569427967,0.02618701010942459,0.04388415813446045,-0.06181151419878006,0.002709470223635435,0.012658953666687012,-0.07067686319351196,-0.019886784255504608,-0.07403832674026489,-0.019233493134379387,0.006740669719874859,0.03062351420521736,-0.02417569048702717,0.09738290309906006,0.04196795076131821,0.13953833281993866,-0.0032205216120928526,0.007339228875935078,-0.12638947367668152,0.018847687169909477,-0.027498703449964523,-0.06079733371734619,-0.02041619084775448,-0.037024952471256256,0.03147203475236893,-0.01207045093178749,-0.05322670191526413,0.0028595011681318283,-0.0009096286376006901,-0.028382930904626846,-0.023954547941684723,0.05568267032504082,-0.027136443182826042,-0.006693027913570404,0.018968023359775543,-0.07755991816520691,-0.28037142753601074,0.021542057394981384,0.019647996872663498,0.053824011236429214,-0.017151763662695885,-0.019261367619037628,0.002471386222168803,-0.014731386676430702,-0.016710367053747177,-0.028037304058670998,-0.012709831818938255,-0.004390716087073088,-0.19352282583713531,-0.06371289491653442,-0.016845233738422394,-0.009669478051364422,-0.03459572419524193,-0.18761974573135376,0.0663771703839302,-0.026403037831187248,-0.025946129113435745,-0.0485667884349823,0.002911623800173402,-0.0018071425147354603,-0.10475156456232071,0.021720029413700104,0.02767058089375496,-0.005272433627396822,0.02775140479207039,0.018034443259239197,0.010869232006371021,-0.0746469795703888,-0.029427478089928627,-0.007950945757329464,0.037628285586833954,-0.14916597306728363,0.038108594715595245,-0.05990226939320564,-0.07553155720233917,0.01472520548850298,0.07910828292369843,-0.04972332343459129,0.08411914110183716,0.005942655261605978,-0.02447781153023243,0.06693710386753082,0.07062254101037979,-0.017921216785907745,0.01606339029967785,-0.027386244386434555,-0.06589195877313614,0.03700656816363335,0.04181472584605217,-0.04218283295631409,-0.22318919003009796,0.015080669894814491,0.10362117737531662,-0.013654781505465508,0.0038452420849353075,-0.05613779276609421,0.010614413768053055,0.22176915407180786,0.008374382741749287,0.021903369575738907,0.0034271094482392073,0.10536229610443115,0.019714146852493286,-0.05528777092695236,-0.04332417994737625,0.004636370111256838,-0.052951518446207047,0.027136994525790215,-0.026566341519355774,0.013786012306809425,0.008652733638882637,0.019665908068418503,0.03851037845015526,-0.015626514330506325,-0.008951229974627495,-0.008230259642004967,0.01833191327750683,-0.061132438480854034,0.008367939852178097,-0.016517160460352898,0.0392887257039547,-0.013194775208830833,-0.05482747033238411,0.08500414341688156,-0.023758191615343094,0.04020645096898079,-0.0036682449281215668,-0.02612157166004181,0.04606006294488907,0.09227126091718674,0.10124964267015457,0.03307425230741501,0.01291620172560215,-0.0339118093252182,-0.061619628220796585,-0.0016930268611758947,-0.039570361375808716,-0.011343790218234062,0.02700166404247284,-0.004692455753684044,0.01273419614881277,0.13163188099861145,0.03879300132393837,-0.0057487888261675835,0.041157711297273636,-0.1281593143939972,0.12083622068166733,0.016941556707024574,-0.0006259134388528764,0.02354184165596962,-0.009598559699952602,0.21606837213039398,0.05848299339413643,-0.05047288164496422,0.024665646255016327,-0.01684359274804592,-0.0772084891796112,-0.03453492373228073,0.02512749657034874,-0.028967536985874176,0.03955840319395065,0.0008227952639572322,-0.022307226434350014,0.013832374475896358,-0.04623755067586899,0.012824669480323792,0.0016527381958439946,-0.008798790164291859,0.05196667090058327,-0.005895163398236036,-0.004713030997663736,0.002711883746087551,0.026502840220928192,0.005557349883019924,-0.04836859554052353,-0.018122265115380287,0.01796744577586651,-0.016124630346894264,0.23279942572116852,0.06421424448490143,-0.02026006020605564,-0.009784923866391182,-0.0013641922269016504,-0.011919532902538776,-0.03762531280517578,-0.028037764132022858,-0.007231859024614096,-0.010003331117331982,0.006136778276413679,0.00919604953378439,0.03210633993148804,0.012669832445681095,0.013592585921287537,-0.046772051602602005,0.025363091379404068,0.004261321388185024,-0.08245299011468887,0.01790621131658554,0.002565378090366721,0.024346569553017616,-0.048176903277635574,0.016784045845270157,0.08234003186225891,0.1122397631406784,0.07698094099760056,-0.1174241155385971,0.018173139542341232,-0.10531466454267502,0.002614673227071762,0.17806942760944366,-0.05581369623541832,0.042979855090379715,0.01028202474117279,0.05299099534749985,0.01968730427324772,-0.023090362548828125,-0.029469044879078865,-0.0243518128991127,-0.02049187943339348,0.0485624298453331,0.033281441777944565,-0.04022875428199768,0.04466914013028145,-0.03160947561264038,0.10177965462207794,-0.05278252437710762,-0.08590372651815414,-0.10948140919208527,-0.05189426243305206,0.022001903504133224,0.04936613142490387,0.01590278558433056,-0.042898450046777725,-0.03192196786403656,-0.004446576349437237,0.0049895029515028,-0.03207690268754959,-0.008532593958079815,-0.02227535843849182,-0.058319494128227234,-0.028251653537154198,-0.020809225738048553,0.0593719519674778,-0.007883613929152489,0.01789970137178898,-0.03932696580886841,-0.030071645975112915,0.003951964434236288,-0.030277907848358154,0.004228429403156042,0.02201814018189907,0.05347886681556702,0.058388788253068924,0.07824385911226273,-0.030488211661577225,-0.0030653809662908316,0.11323073506355286,-0.10041569173336029,4.825569340027869e-05,0.03020884469151497,-0.272775799036026,0.005502801854163408,-0.027216795831918716,0.033457186073064804,-0.02269335463643074,-0.0275726355612278,0.024543168023228645,0.01728217303752899,-0.03855297714471817,-0.03612980619072914,0.08817020058631897,0.1226213201880455,0.0240719486027956,-0.0029871612787246704,-0.039800334721803665,-0.030522635206580162,0.07467766106128693,0.04132721573114395,0.004466935060918331,0.10481071472167969,-0.026974065229296684,0.02455184794962406,0.05145324394106865,-0.05845167115330696,-0.19987064599990845,-0.027662796899676323,0.018019050359725952,0.04716573655605316,0.05934244766831398,0.03500301018357277,0.26707732677459717,0.012330969795584679,-0.027400873601436615,0.018635328859090805,0.052827417850494385,0.01996028609573841,-0.003367950674146414,0.022618012502789497,0.0042851888574659824,0.022073794156312943,0.08411817252635956,-0.03756983205676079,0.007548165507614613,-0.01067300420254469,-0.01565326191484928,0.026560690253973007,0.06131843104958534,-0.08973690867424011,-0.02062990888953209,-0.05493151396512985,0.2256542295217514,0.05812718719244003,0.0091226352378726,0.04773377999663353,-0.01469501107931137,0.0011324946535751224,-0.005986190401017666,-0.028047828003764153,0.00881042517721653,-0.04313400387763977,-0.02770843170583248,0.013076292350888252,0.15084294974803925,0.06107398867607117,0.00908447802066803,0.03251882269978523,-0.00426398403942585,-0.034371621906757355,-0.012290500104427338,0.03135503828525543,-0.017134981229901314,-0.1666288822889328,0.03521290421485901,-0.06926797330379486,0.03243546187877655,0.017794709652662277,0.014722712337970734,0.05219582840800285,0.047398459166288376,-0.05527015030384064,-0.059516020119190216,0.3421475291252136,0.019607456400990486,0.0031252303160727024,0.004214142914861441,0.020602894946932793,0.006000802852213383,0.062033120542764664,-0.04473043605685234,-0.010026476345956326,-0.004750557243824005,-0.00992393959313631,0.028921758756041527,0.02747177705168724,0.0735994353890419,-0.043430063873529434,0.045183002948760986,-0.046734534204006195,0.09725519269704819,-0.03322615101933479,-0.03594723343849182,-0.0055501218885183334,-0.06236850470304489,-0.21549488604068756,0.02368626929819584,0.06578168272972107,0.04618438705801964,-0.005508939269930124,0.049258921295404434,0.01321546733379364,0.042779453098773956,0.10825999826192856,0.04532258212566376,0.0678233876824379,0.04720287024974823,0.0358908511698246,-0.009802240878343582,-0.03935795649886131,0.1163969337940216,-0.06429558992385864,-0.020040884613990784,-0.002472067251801491],[-0.05450781062245369,0.014171279966831207,0.005711875855922699,-0.04945717006921768,-0.0461154542863369,-0.0326424241065979,0.0244472473859787,-0.009953961707651615,-0.061759963631629944,-0.003972995560616255,0.03796030580997467,0.05299752950668335,0.019565103575587273,-0.017089879140257835,0.013852392323315144,-0.01937277801334858,0.006350394804030657,-0.11823182553052902,-0.020286839455366135,-0.028035800904035568,-0.04077626392245293,-0.02399340830743313,0.1203802302479744,0.023900460451841354,0.017504598945379257,-0.0001194429787574336,-0.018216043710708618,0.02840162068605423,-0.061309147626161575,0.0479484423995018,0.018841227516531944,-0.008990106172859669,0.03560081869363785,-0.049800943583250046,0.016874030232429504,0.03292027488350868,0.06201589107513428,-0.2111518532037735,0.042557261884212494,-0.0037448471412062645,-0.012808972038328648,0.03603525832295418,-0.056629158556461334,0.022020988166332245,-0.0034083533100783825,0.0020697927102446556,-0.010654721409082413,0.038461849093437195,0.08865024894475937,-0.08516053855419159,-0.0127534419298172,0.06500313431024551,-0.026570161804556847,-0.007568676955997944,0.009308460168540478,-0.010322229005396366,-0.25526684522628784,-0.03114759922027588,-0.02099740132689476,0.04194100573658943,-0.005871645640581846,0.05139066278934479,0.026086976751685143,0.04888330399990082,-0.013427065685391426,-0.03288618475198746,-0.1957615315914154,-0.09954161942005157,0.16969305276870728,-0.039893098175525665,-0.028562305495142937,0.02256154641509056,-0.15440231561660767,-0.02068674936890602,-0.027679016813635826,-0.017183925956487656,0.005548318848013878,-0.020092662423849106,0.015754491090774536,0.01171385869383812,-0.016075406223535538,-0.02881266549229622,0.16972264647483826,-0.025982923805713654,0.02168009988963604,0.021306389942765236,-0.030745888128876686,0.015911264345049858,0.024407753720879555,0.005113070365041494,0.09568862617015839,-0.05107121914625168,0.023894913494586945,-0.01313284132629633,0.007579226512461901,-0.016134964302182198,0.017652247101068497,-0.021299563348293304,0.027089007198810577,-0.18173283338546753,-0.012176024727523327,-0.016987552866339684,-0.0155552439391613,0.022714121267199516,-0.024869387969374657,-0.028994658961892128,-0.03367312252521515,-0.056957680732011795,0.03913967311382294,0.028576385229825974,-0.06403468549251556,0.018969358876347542,-0.0020199506543576717,0.025189973413944244,0.020581433549523354,-0.004597888793796301,0.0560622438788414,0.014110508374869823,0.019016791135072708,-0.030104350298643112,-0.0114141795784235,-0.014409266412258148,0.021307026967406273,0.049873024225234985,-0.010428028181195259,0.14062470197677612,0.010971740819513798,-0.03332426771521568,-0.04455310106277466,-0.008570708334445953,0.02546042762696743,0.0198719073086977,0.04940849915146828,0.02091609686613083,0.017951972782611847,0.0021512540988624096,0.024343391880393028,-0.2544543743133545,0.027325812727212906,0.0140684237703681,-0.02011471800506115,0.007383191958069801,0.002545322058722377,-0.08783572167158127,0.04721246659755707,0.24780231714248657,0.04198901727795601,-0.016233567148447037,-0.01875404454767704,-0.0027006061282008886,-0.05950046703219414,0.038484733551740646,0.2340477854013443,-0.01631281152367592,-0.034754011780023575,-0.0064962212927639484,0.000820280285552144,0.02596588060259819,0.037431031465530396,-0.0271869208663702,0.3121098577976227,-0.024411583319306374,0.007407874800264835,-0.03209076076745987,0.272619366645813,-0.005707786418497562,0.05748160183429718,0.0011229687370359898,0.001022259471938014,0.01488092914223671,-0.0384027399122715,-0.08882074803113937,0.01880553923547268,-0.014504016377031803,0.15000687539577484,0.22452619671821594,-0.016068948432803154,-0.027119092643260956,0.020733289420604706,-0.01587173156440258,-0.008679975755512714,0.14106130599975586,0.16149765253067017,-0.043453216552734375,0.046564046293497086,0.021412933245301247,0.06129443272948265,0.04948102682828903,0.04374408349394798,-0.017047425732016563,-0.1926807463169098,-0.03408520668745041,0.08112232387065887,0.056056346744298935,0.003652465995401144,-0.010520276613533497,0.005734071135520935,0.02758498303592205,-0.12551188468933105,0.2968958020210266,-0.02553199604153633,-0.009889225475490093,0.03112366423010826,-0.00855323951691389,-0.04248097911477089,0.017074260860681534,-0.0372406467795372,0.04697410762310028,0.02599157951772213,-0.005132891703397036,0.035593561828136444,0.06585145741701126,0.08673423528671265,0.06733252108097076,0.0011797819752246141,-0.022354844957590103,-0.16399258375167847,0.009914848022162914,0.018104156479239464,-0.02293582446873188,0.17251920700073242,0.02154053933918476,-0.01406992319971323,-0.009211093187332153,0.03395359590649605,0.05125441774725914,-0.11902514845132828,0.010028001852333546,0.040730711072683334,0.013776993378996849,0.015522073954343796,-0.0037777433171868324,0.043828219175338745,0.08047343045473099,-0.0007817554287612438,-0.006856800056993961,-0.04122450202703476,-0.011365193873643875,-0.01740317977964878,0.02000357396900654,-0.031852226704359055,0.042801596224308014,0.0498000904917717,-0.08295365422964096,-0.028199076652526855,-0.16994836926460266,0.029699018225073814,-0.2593412697315216,0.012929673306643963,0.015428103506565094,-0.016720477491617203,-0.15934304893016815,-0.03378875553607941,-0.014174357987940311,0.0060410345904529095,-0.023682786151766777,0.0034144925884902477,0.04036664590239525,-0.010737749747931957,-0.030780546367168427,0.07000762224197388,-0.003613187000155449,0.023254578933119774,-0.008537492714822292,0.06422943621873856,-0.013329334557056427,0.0782812163233757,0.051084116101264954,0.012939194217324257,-0.028829973191022873,0.043768029659986496,0.03212091699242592,-0.011141260154545307,0.07135381549596786,-0.14804667234420776,0.07405463606119156,0.03788847103714943,0.010476666502654552,0.027281561866402626,0.0435379333794117,-0.04580000415444374,-0.05070994049310684,-0.017197471112012863,0.18402433395385742,0.052891120314598083,0.11339114606380463,0.007305846083909273,0.01397459302097559,0.00680882204324007,0.02977612055838108,0.04033705219626427,-0.02606334537267685,0.04201182723045349,-0.0448155403137207,-0.16697746515274048,-0.060190923511981964,-0.10948074609041214,0.014107056893408298,-0.024986183270812035,0.045389480888843536,0.29093730449676514,0.022627782076597214,-0.012174186296761036,-0.04409452900290489,0.025978514924645424,-0.008393719792366028,-0.023693470284342766,-0.016858411952853203,0.05094531178474426,-0.02165995165705681,0.019305456429719925,0.015394321642816067,0.014910896308720112,-0.007255068980157375,0.015937956050038338,0.061017245054244995,0.03553556650876999,-0.00010041604400612414,0.026239803060889244,-0.10290312021970749,0.0036697345785796642,-0.025084009394049644,-0.011701601557433605,-0.08244367688894272,-0.02178376540541649,-0.23799121379852295,0.03345357999205589,-0.047411441802978516,-0.009437212720513344,0.07721202820539474,0.04824588820338249,0.03817078098654747,-0.022951023653149605,-0.004027754534035921,-0.14242468774318695,-0.05715692788362503,0.032097529619932175,-0.02810564637184143,0.010782918892800808,0.009640012867748737,0.05049246549606323,0.0484023243188858,-0.009231927804648876,0.014450067654252052,-0.012818659655749798,0.03975364938378334,0.018646258860826492,0.015620131976902485,-0.006924263667315245,0.009034530259668827,-0.026715507730841637,-0.008078967221081257,0.0035850307904183865,0.007859556935727596,0.028861232101917267,0.012773707509040833,-0.11128966510295868,0.031245393678545952,0.00022780511062592268,-0.14272497594356537,0.0700860396027565,-0.037628307938575745,0.08829200267791748,0.01577582396566868,-0.10248783975839615,0.02832009457051754,-0.02758440375328064,-0.09053299576044083,-0.005822445265948772,0.027210719883441925,-0.0038603292778134346,-0.019123272970318794,-0.010867910459637642,0.04085574299097061,0.17907321453094482,-0.048222579061985016,-0.07598605006933212,-0.016988757997751236,-0.02797243744134903,-0.02125384658575058,-0.048793725669384,-0.044625502079725266,-0.01736978441476822,-0.013490002602338791,0.0008618732099421322,-0.00766898924484849,0.0063185663893818855,0.010150223039090633,0.006695701275020838,-0.02880825288593769,0.06628702580928802,0.0378483384847641,-0.028919154778122902,0.013958215713500977,-0.06572961807250977,-0.008527211844921112,-0.012122281827032566,0.04249223321676254,-0.04445178806781769,0.06852667033672333,0.03439109027385712,0.08917413651943207,-0.010885200463235378,0.001574502675794065,-0.07729548215866089,-0.0056679341942071915,-0.03394028916954994,-0.03842002898454666,0.002373534720391035,-0.0010225212899968028,-0.014888572506606579,-0.008522226475179195,-0.02345915324985981,0.03159305080771446,0.03816338628530502,0.013908984139561653,0.004269844852387905,0.07692179083824158,-0.050316937267780304,0.01146228238940239,-0.04179379716515541,-0.07032416015863419,-0.26918044686317444,0.013330142013728619,0.037892889231443405,0.04626551643013954,0.026277100667357445,0.009221754968166351,-0.014360846020281315,-0.009277214296162128,-0.0035102174151688814,0.008730283938348293,-0.04183083772659302,0.019966110587120056,-0.21147821843624115,-0.042550571262836456,-0.016685372218489647,-0.006524348631501198,-0.015744861215353012,-0.18752165138721466,0.07893911004066467,0.015089486725628376,-0.010380193591117859,-0.056769758462905884,-0.01124509610235691,-0.06409478932619095,-0.12245792150497437,0.021035876125097275,-0.004679662175476551,-0.03338484838604927,0.007446482311934233,0.02772619016468525,0.015086621977388859,-0.05571163818240166,-0.021979399025440216,0.04987431317567825,0.029229426756501198,-0.1812712550163269,0.038380324840545654,-0.09287477284669876,-0.09151028096675873,-0.04396515339612961,0.03906768560409546,-0.03980091214179993,0.0739782527089119,0.04827111214399338,-0.028453689068555832,0.032242488116025925,0.06007639691233635,0.0018130415119230747,-0.03098861128091812,-0.014541547745466232,-0.018322261050343513,-0.007689695805311203,0.010354582220315933,-0.02435482293367386,-0.19219568371772766,0.024254871532320976,0.12016056478023529,0.006751454435288906,0.020146150141954422,-0.029196802526712418,-0.03941753879189491,0.18659043312072754,-0.006555596832185984,0.023324931040406227,0.014600171707570553,0.0951041430234909,0.017300864681601524,-0.07219751179218292,-0.04393467679619789,0.03863054886460304,-0.08882247656583786,0.013996979221701622,-0.0971599593758583,0.06456410884857178,0.05687222257256508,0.01721474714577198,0.04583600163459778,-0.0522783137857914,-0.008366669528186321,-0.023245256394147873,0.0022644607815891504,-0.026692699640989304,0.037677209824323654,-0.042568907141685486,0.011771001853048801,-0.023295728489756584,-0.020503703504800797,0.06990903615951538,0.03445860743522644,0.01363865751773119,0.02684267796576023,-0.027994323521852493,0.1062302440404892,0.04324314743280411,0.17023426294326782,0.045429129153490067,0.022193336859345436,-0.051172371953725815,-0.05226133018732071,-0.05168023332953453,0.02013593353331089,0.012134604156017303,0.017495758831501007,0.05084902420639992,-0.006541682872921228,0.07370495796203613,0.023360159248113632,-0.05317361280322075,-0.0038971721660345793,-0.06902441382408142,0.06313762068748474,0.00408487394452095,-0.003277167910709977,-0.011843028478324413,0.023804759606719017,0.2616094648838043,0.067759208381176,0.030758153647184372,0.002731737680733204,-0.0005025103455409408,-0.12524771690368652,-0.02635456621646881,0.049680858850479126,-0.04804278537631035,-0.02175138331949711,-0.05657987296581268,-0.016655780375003815,0.02418668009340763,-0.11150416731834412,0.024204196408391,-0.0558205246925354,0.04214240610599518,0.015470215119421482,-0.028228307142853737,0.015950322151184082,0.05848075449466705,0.001302966964431107,-0.003369907382875681,-0.06326113641262054,-0.05158589780330658,0.018683677539229393,-0.05147193744778633,0.17694561183452606,0.04040302708745003,-0.02709253504872322,0.002983217593282461,0.040753141045570374,0.009237900376319885,-0.009561510756611824,-0.02376035414636135,-0.06517966091632843,0.00030799751402810216,-0.03661205619573593,0.011962841264903545,0.005982433911412954,0.06938676536083221,-0.01163583155721426,-0.012007329612970352,0.04361338913440704,0.046900998800992966,-0.07977853715419769,0.04657910764217377,0.06885974109172821,0.026239663362503052,-0.0004798229201696813,0.005147464107722044,0.059392888098955154,0.11014220118522644,0.10814297944307327,-0.14277102053165436,0.014217005111277103,-0.11075849086046219,0.012050961144268513,0.1852688044309616,-0.08228408545255661,0.0278654582798481,0.01787838526070118,0.08663314580917358,0.052281029522418976,-0.0181608684360981,-0.0611136257648468,0.010586632415652275,-0.021955596283078194,0.09926708042621613,-0.010803990997374058,-0.014595629647374153,0.036110591143369675,-0.003191625000908971,0.15425774455070496,-0.036710891872644424,-0.12115152925252914,-0.12666070461273193,-0.04048306494951248,0.03581305593252182,0.013478855602443218,0.027927430346608162,-0.013586082495748997,0.023745087906718254,-0.0078430799767375,-0.05788096413016319,0.010687059722840786,0.03040679730474949,0.006722841877490282,-0.013961140997707844,0.0018922220915555954,-0.02748989872634411,0.06068883463740349,0.001046500401571393,-0.003428370226174593,-0.043614961206912994,-0.0011077404487878084,0.001591045642271638,0.02531025931239128,-0.04652659595012665,0.007346429396420717,0.02953498624265194,0.06275045871734619,0.06025438755750656,-0.08856917917728424,0.02170107141137123,0.14443908631801605,-0.15071232616901398,-0.002263600006699562,0.051805995404720306,-0.28968289494514465,-0.009469091892242432,-0.005967901088297367,0.027852343395352364,-0.01863948442041874,-0.04080758988857269,-0.005307079758495092,0.03267233073711395,-0.019741039723157883,-0.03846989944577217,0.10422999411821365,0.06333991885185242,0.008138163946568966,-0.018178366124629974,-0.02308378741145134,-0.018898239359259605,0.0979025810956955,-0.0011838455684483051,0.025644242763519287,0.10015282779932022,0.003196954494342208,0.03454107791185379,0.07008875161409378,-0.06923044472932816,-0.17258691787719727,-0.0008552387589588761,0.007092602085322142,0.04909767210483551,0.058179765939712524,0.007348072249442339,0.25989893078804016,-0.03161762282252312,-0.06576631218194962,-0.02247319556772709,0.03560918942093849,-0.015280481427907944,-0.021575966849923134,-0.010651716962456703,0.008489856496453285,0.03617337718605995,0.07777255773544312,-0.012870351783931255,-0.00776453223079443,0.008106129243969917,-0.02444053441286087,0.037772126495838165,0.08240948617458344,-0.09488646686077118,0.03484063223004341,-0.05397668108344078,0.2262921929359436,0.03720328211784363,0.04112691432237625,0.012183125130832195,0.01590145006775856,-0.01034531183540821,0.005673967767506838,-0.029953351244330406,-0.026426784694194794,0.0002538605476729572,-0.05436597019433975,-0.018151193857192993,0.1550266295671463,0.08883841335773468,-0.01870209351181984,0.07388655841350555,0.026738237589597702,-0.005003561265766621,0.009774926118552685,0.01147212740033865,-0.0007967439014464617,-0.15018776059150696,0.03769844397902489,-0.031649790704250336,0.05960520729422569,0.047249626368284225,-0.002166283782571554,0.0002982885343953967,0.006262536160647869,-0.00530580710619688,-0.008705692365765572,0.3088836967945099,0.026036370545625687,-0.024201761931180954,0.016811396926641464,0.04940079152584076,-0.03213002532720566,0.05835052579641342,-0.04311349615454674,0.008670656941831112,0.05051848664879799,-0.04251214116811752,0.044096723198890686,-0.011777267791330814,0.04817359149456024,-0.05763503909111023,0.054924458265304565,-0.008661212399601936,0.04743282496929169,-0.04103983938694,-0.007116052322089672,0.006112855859100819,-0.06695040315389633,-0.20594093203544617,0.046584486961364746,0.031686462461948395,0.005341189913451672,-0.05774960666894913,0.045377735048532486,0.004420389886945486,-0.016926048323512077,0.1390109658241272,0.10099557787179947,0.0838962122797966,0.023132797330617905,-0.000860993517562747,-0.002202162053436041,-0.00903164129704237,0.10283330827951431,-0.04219883680343628,0.006920367479324341,-0.0035504912957549095]],"auxiliary_bias":[-0.0047396086156368256,0.03171035274863243,-0.0006548459641635418,-0.015890443697571754]}}
